#pragma once
#include <cstdarg>
namespace Eloquent {
    namespace ML {
        namespace Port {
            class DecisionTree {
                public:
                    /**
                    * Predict class for features vector
                    */
                    int predict(float *x) {
                        if (x[0] <= 0.22942455857992172) {
                            if (x[0] <= 0.07039792463183403) {
                                if (x[1] <= 0.09570510685443878) {
                                    if (x[2] <= 0.08376923948526382) {
                                        if (x[3] <= 0.08046020939946175) {
                                            if (x[1] <= 0.06595244258642197) {
                                                if (x[2] <= 0.06652776896953583) {
                                                    if (x[3] <= 0.04742668382823467) {
                                                        return 1;
                                                    }

                                                    else {
                                                        if (x[0] <= 0.06227649562060833) {
                                                            if (x[1] <= 0.060999708250164986) {
                                                                if (x[2] <= 0.05758400075137615) {
                                                                    return 1;
                                                                }

                                                                else {
                                                                    if (x[1] <= 0.037807052955031395) {
                                                                        if (x[1] <= 0.02896763477474451) {
                                                                            return 1;
                                                                        }

                                                                        else {
                                                                            if (x[3] <= 0.06144000217318535) {
                                                                                return 1;
                                                                            }

                                                                            else {
                                                                                return 2;
                                                                            }
                                                                        }
                                                                    }

                                                                    else {
                                                                        return 2;
                                                                    }
                                                                }
                                                            }

                                                            else {
                                                                if (x[2] <= 0.022725757211446762) {
                                                                    return 1;
                                                                }

                                                                else {
                                                                    return 2;
                                                                }
                                                            }
                                                        }

                                                        else {
                                                            if (x[2] <= 0.028337677475064993) {
                                                                return 1;
                                                            }

                                                            else {
                                                                return 2;
                                                            }
                                                        }
                                                    }
                                                }

                                                else {
                                                    if (x[0] <= 0.059501009061932564) {
                                                        if (x[1] <= 0.062000950798392296) {
                                                            if (x[0] <= 0.04720453545451164) {
                                                                if (x[3] <= 0.07669965922832489) {
                                                                    if (x[0] <= 0.043423255905508995) {
                                                                        return 1;
                                                                    }

                                                                    else {
                                                                        if (x[0] <= 0.043432366102933884) {
                                                                            return 2;
                                                                        }

                                                                        else {
                                                                            return 1;
                                                                        }
                                                                    }
                                                                }

                                                                else {
                                                                    if (x[1] <= 0.019281982444226742) {
                                                                        return 1;
                                                                    }

                                                                    else {
                                                                        return 2;
                                                                    }
                                                                }
                                                            }

                                                            else {
                                                                if (x[2] <= 0.07601626589894295) {
                                                                    return 1;
                                                                }

                                                                else {
                                                                    return 2;
                                                                }
                                                            }
                                                        }

                                                        else {
                                                            return 2;
                                                        }
                                                    }

                                                    else {
                                                        return 2;
                                                    }
                                                }
                                            }

                                            else {
                                                if (x[2] <= 0.06252307817339897) {
                                                    if (x[3] <= 0.062076346948742867) {
                                                        if (x[0] <= 0.06359982490539551) {
                                                            if (x[3] <= 0.040187226608395576) {
                                                                if (x[0] <= 0.062176575884222984) {
                                                                    if (x[2] <= 0.05451778694987297) {
                                                                        return 1;
                                                                    }

                                                                    else {
                                                                        if (x[3] <= 0.01605262979865074) {
                                                                            return 1;
                                                                        }

                                                                        else {
                                                                            return 2;
                                                                        }
                                                                    }
                                                                }

                                                                else {
                                                                    if (x[3] <= 0.018048000521957874) {
                                                                        return 1;
                                                                    }

                                                                    else {
                                                                        return 2;
                                                                    }
                                                                }
                                                            }

                                                            else {
                                                                if (x[0] <= 0.039227791130542755) {
                                                                    if (x[2] <= 0.043863506987690926) {
                                                                        if (x[3] <= 0.06006818450987339) {
                                                                            return 1;
                                                                        }

                                                                        else {
                                                                            if (x[0] <= 0.019510256126523018) {
                                                                                return 1;
                                                                            }

                                                                            else {
                                                                                return 2;
                                                                            }
                                                                        }
                                                                    }

                                                                    else {
                                                                        return 2;
                                                                    }
                                                                }

                                                                else {
                                                                    return 2;
                                                                }
                                                            }
                                                        }

                                                        else {
                                                            return 2;
                                                        }
                                                    }

                                                    else {
                                                        if (x[0] <= 0.01622843462973833) {
                                                            if (x[2] <= 0.030986637342721224) {
                                                                return 1;
                                                            }

                                                            else {
                                                                return 2;
                                                            }
                                                        }

                                                        else {
                                                            return 2;
                                                        }
                                                    }
                                                }

                                                else {
                                                    if (x[0] <= 0.0038733051624149084) {
                                                        if (x[3] <= 0.03663917351514101) {
                                                            return 1;
                                                        }

                                                        else {
                                                            return 2;
                                                        }
                                                    }

                                                    else {
                                                        return 2;
                                                    }
                                                }
                                            }
                                        }

                                        else {
                                            if (x[1] <= 0.03723348304629326) {
                                                if (x[2] <= 0.05102821998298168) {
                                                    if (x[1] <= 0.02868788968771696) {
                                                        if (x[2] <= 0.03795660473406315) {
                                                            return 1;
                                                        }

                                                        else {
                                                            if (x[0] <= 0.015217953361570835) {
                                                                return 1;
                                                            }

                                                            else {
                                                                if (x[2] <= 0.04606742598116398) {
                                                                    return 2;
                                                                }

                                                                else {
                                                                    return 1;
                                                                }
                                                            }
                                                        }
                                                    }

                                                    else {
                                                        if (x[0] <= 0.03374548815190792) {
                                                            if (x[2] <= 0.044826872646808624) {
                                                                return 1;
                                                            }

                                                            else {
                                                                if (x[1] <= 0.029676193371415138) {
                                                                    return 1;
                                                                }

                                                                else {
                                                                    return 2;
                                                                }
                                                            }
                                                        }

                                                        else {
                                                            return 2;
                                                        }
                                                    }
                                                }

                                                else {
                                                    if (x[3] <= 0.08848658576607704) {
                                                        if (x[1] <= 0.012577490415424109) {
                                                            return 2;
                                                        }

                                                        else {
                                                            return 1;
                                                        }
                                                    }

                                                    else {
                                                        return 2;
                                                    }
                                                }
                                            }

                                            else {
                                                if (x[2] <= 0.00637806486338377) {
                                                    if (x[0] <= 0.027136980555951595) {
                                                        return 1;
                                                    }

                                                    else {
                                                        return 2;
                                                    }
                                                }

                                                else {
                                                    return 2;
                                                }
                                            }
                                        }
                                    }

                                    else {
                                        if (x[3] <= 0.05736183933913708) {
                                            if (x[0] <= 0.044546596705913544) {
                                                if (x[1] <= 0.04048100486397743) {
                                                    if (x[2] <= 0.1439274400472641) {
                                                        if (x[2] <= 0.1369243636727333) {
                                                            if (x[0] <= 0.03462831676006317) {
                                                                if (x[0] <= 0.002343300438951701) {
                                                                    return 2;
                                                                }

                                                                else {
                                                                    if (x[3] <= 0.0570266954600811) {
                                                                        if (x[0] <= 0.029522525146603584) {
                                                                            return 1;
                                                                        }

                                                                        else {
                                                                            if (x[2] <= 0.11006687209010124) {
                                                                                if (x[1] <= 0.029322107322514057) {
                                                                                    return 1;
                                                                                }

                                                                                else {
                                                                                    return 2;
                                                                                }
                                                                            }

                                                                            else {
                                                                                return 2;
                                                                            }
                                                                        }
                                                                    }

                                                                    else {
                                                                        if (x[0] <= 0.020477226935327053) {
                                                                            return 2;
                                                                        }

                                                                        else {
                                                                            return 1;
                                                                        }
                                                                    }
                                                                }
                                                            }

                                                            else {
                                                                if (x[1] <= 0.010327881667762995) {
                                                                    return 1;
                                                                }

                                                                else {
                                                                    if (x[2] <= 0.08942875638604164) {
                                                                        return 1;
                                                                    }

                                                                    else {
                                                                        return 2;
                                                                    }
                                                                }
                                                            }
                                                        }

                                                        else {
                                                            if (x[3] <= 0.01859691319987178) {
                                                                if (x[1] <= 0.03320701792836189) {
                                                                    return 1;
                                                                }

                                                                else {
                                                                    return 2;
                                                                }
                                                            }

                                                            else {
                                                                return 2;
                                                            }
                                                        }
                                                    }

                                                    else {
                                                        if (x[3] <= 0.01184749323874712) {
                                                            return 1;
                                                        }

                                                        else {
                                                            return 2;
                                                        }
                                                    }
                                                }

                                                else {
                                                    if (x[2] <= 0.10013293847441673) {
                                                        if (x[3] <= 0.0322328619658947) {
                                                            if (x[1] <= 0.07760533690452576) {
                                                                return 1;
                                                            }

                                                            else {
                                                                return 2;
                                                            }
                                                        }

                                                        else {
                                                            return 2;
                                                        }
                                                    }

                                                    else {
                                                        if (x[1] <= 0.04443682171404362) {
                                                            if (x[2] <= 0.12356927245855331) {
                                                                return 1;
                                                            }

                                                            else {
                                                                return 2;
                                                            }
                                                        }

                                                        else {
                                                            return 2;
                                                        }
                                                    }
                                                }
                                            }

                                            else {
                                                return 2;
                                            }
                                        }

                                        else {
                                            if (x[3] <= 0.1181039996445179) {
                                                if (x[2] <= 0.15784615278244019) {
                                                    if (x[3] <= 0.05978556349873543) {
                                                        if (x[1] <= 0.008905643247999251) {
                                                            return 1;
                                                        }

                                                        else {
                                                            return 2;
                                                        }
                                                    }

                                                    else {
                                                        return 2;
                                                    }
                                                }

                                                else {
                                                    if (x[2] <= 0.15895384550094604) {
                                                        return 0;
                                                    }

                                                    else {
                                                        return 2;
                                                    }
                                                }
                                            }

                                            else {
                                                if (x[1] <= 0.08097710460424423) {
                                                    return 2;
                                                }

                                                else {
                                                    return 0;
                                                }
                                            }
                                        }
                                    }
                                }

                                else {
                                    if (x[2] <= 0.10047778114676476) {
                                        if (x[3] <= 0.014408578630536795) {
                                            if (x[1] <= 0.1461077779531479) {
                                                if (x[2] <= 0.042936211451888084) {
                                                    if (x[0] <= 0.05099842697381973) {
                                                        return 1;
                                                    }

                                                    else {
                                                        if (x[1] <= 0.10325673222541809) {
                                                            return 1;
                                                        }

                                                        else {
                                                            return 2;
                                                        }
                                                    }
                                                }

                                                else {
                                                    return 2;
                                                }
                                            }

                                            else {
                                                if (x[2] <= 0.0985538475215435) {
                                                    if (x[1] <= 0.15306375175714493) {
                                                        if (x[1] <= 0.15105124562978745) {
                                                            return 2;
                                                        }

                                                        else {
                                                            return 1;
                                                        }
                                                    }

                                                    else {
                                                        return 2;
                                                    }
                                                }

                                                else {
                                                    if (x[2] <= 0.09876922890543938) {
                                                        return 0;
                                                    }

                                                    else {
                                                        return 2;
                                                    }
                                                }
                                            }
                                        }

                                        else {
                                            if (x[3] <= 0.08961252868175507) {
                                                if (x[1] <= 0.10323100909590721) {
                                                    if (x[0] <= 0.01426750747486949) {
                                                        if (x[2] <= 0.03542282432317734) {
                                                            return 1;
                                                        }

                                                        else {
                                                            return 2;
                                                        }
                                                    }

                                                    else {
                                                        if (x[0] <= 0.026098614558577538) {
                                                            if (x[2] <= 0.03788163838908076) {
                                                                return 1;
                                                            }

                                                            else {
                                                                return 2;
                                                            }
                                                        }

                                                        else {
                                                            return 2;
                                                        }
                                                    }
                                                }

                                                else {
                                                    if (x[1] <= 0.22935201972723007) {
                                                        if (x[3] <= 0.015117101836949587) {
                                                            if (x[1] <= 0.1428985372185707) {
                                                                return 1;
                                                            }

                                                            else {
                                                                return 2;
                                                            }
                                                        }

                                                        else {
                                                            if (x[1] <= 0.2169552966952324) {
                                                                if (x[2] <= 0.09443077072501183) {
                                                                    return 2;
                                                                }

                                                                else {
                                                                    if (x[1] <= 0.1951449289917946) {
                                                                        return 2;
                                                                    }

                                                                    else {
                                                                        return 0;
                                                                    }
                                                                }
                                                            }

                                                            else {
                                                                if (x[3] <= 0.08416800200939178) {
                                                                    if (x[1] <= 0.2172182947397232) {
                                                                        return 0;
                                                                    }

                                                                    else {
                                                                        if (x[2] <= 0.07350769266486168) {
                                                                            return 2;
                                                                        }

                                                                        else {
                                                                            if (x[3] <= 0.046257151290774345) {
                                                                                return 2;
                                                                            }

                                                                            else {
                                                                                return 0;
                                                                            }
                                                                        }
                                                                    }
                                                                }

                                                                else {
                                                                    return 0;
                                                                }
                                                            }
                                                        }
                                                    }

                                                    else {
                                                        if (x[0] <= 0.062080543488264084) {
                                                            if (x[1] <= 0.22955189645290375) {
                                                                return 0;
                                                            }

                                                            else {
                                                                if (x[2] <= 0.06818461418151855) {
                                                                    return 2;
                                                                }

                                                                else {
                                                                    if (x[0] <= 0.04644142836332321) {
                                                                        return 2;
                                                                    }

                                                                    else {
                                                                        return 0;
                                                                    }
                                                                }
                                                            }
                                                        }

                                                        else {
                                                            if (x[3] <= 0.03588867839425802) {
                                                                return 2;
                                                            }

                                                            else {
                                                                return 0;
                                                            }
                                                        }
                                                    }
                                                }
                                            }

                                            else {
                                                if (x[1] <= 0.19357634335756302) {
                                                    if (x[2] <= 0.06064615398645401) {
                                                        return 2;
                                                    }

                                                    else {
                                                        if (x[0] <= 0.028848158195614815) {
                                                            if (x[1] <= 0.17447586357593536) {
                                                                return 2;
                                                            }

                                                            else {
                                                                if (x[1] <= 0.18234382569789886) {
                                                                    return 0;
                                                                }

                                                                else {
                                                                    return 2;
                                                                }
                                                            }
                                                        }

                                                        else {
                                                            if (x[1] <= 0.12110539525747299) {
                                                                return 2;
                                                            }

                                                            else {
                                                                if (x[2] <= 0.07538461685180664) {
                                                                    if (x[0] <= 0.042187659069895744) {
                                                                        return 2;
                                                                    }

                                                                    else {
                                                                        if (x[1] <= 0.1510082706809044) {
                                                                            return 2;
                                                                        }

                                                                        else {
                                                                            return 0;
                                                                        }
                                                                    }
                                                                }

                                                                else {
                                                                    return 0;
                                                                }
                                                            }
                                                        }
                                                    }
                                                }

                                                else {
                                                    if (x[2] <= 0.04583201929926872) {
                                                        if (x[0] <= 0.04041045531630516) {
                                                            return 2;
                                                        }

                                                        else {
                                                            if (x[2] <= 0.014517553616315126) {
                                                                return 2;
                                                            }

                                                            else {
                                                                return 0;
                                                            }
                                                        }
                                                    }

                                                    else {
                                                        if (x[3] <= 0.09424800053238869) {
                                                            if (x[0] <= 0.038637115620076656) {
                                                                return 2;
                                                            }

                                                            else {
                                                                return 0;
                                                            }
                                                        }

                                                        else {
                                                            return 0;
                                                        }
                                                    }
                                                }
                                            }
                                        }
                                    }

                                    else {
                                        if (x[1] <= 0.1939459592103958) {
                                            if (x[3] <= 0.09080983698368073) {
                                                if (x[0] <= 0.04951579123735428) {
                                                    if (x[1] <= 0.1737598553299904) {
                                                        if (x[1] <= 0.14858290553092957) {
                                                            return 2;
                                                        }

                                                        else {
                                                            if (x[3] <= 0.0741804838180542) {
                                                                if (x[3] <= 0.05937599949538708) {
                                                                    return 2;
                                                                }

                                                                else {
                                                                    if (x[0] <= 0.015377051662653685) {
                                                                        return 0;
                                                                    }

                                                                    else {
                                                                        return 2;
                                                                    }
                                                                }
                                                            }

                                                            else {
                                                                return 0;
                                                            }
                                                        }
                                                    }

                                                    else {
                                                        if (x[3] <= 0.06317787989974022) {
                                                            if (x[2] <= 0.15596923232078552) {
                                                                if (x[2] <= 0.14249339699745178) {
                                                                    return 2;
                                                                }

                                                                else {
                                                                    if (x[1] <= 0.1872442662715912) {
                                                                        return 2;
                                                                    }

                                                                    else {
                                                                        return 0;
                                                                    }
                                                                }
                                                            }

                                                            else {
                                                                return 0;
                                                            }
                                                        }

                                                        else {
                                                            if (x[0] <= 0.018773356452584267) {
                                                                return 2;
                                                            }

                                                            else {
                                                                return 0;
                                                            }
                                                        }
                                                    }
                                                }

                                                else {
                                                    if (x[1] <= 0.14185026288032532) {
                                                        if (x[2] <= 0.149723082780838) {
                                                            return 2;
                                                        }

                                                        else {
                                                            return 0;
                                                        }
                                                    }

                                                    else {
                                                        if (x[3] <= 0.0247439993545413) {
                                                            return 2;
                                                        }

                                                        else {
                                                            return 0;
                                                        }
                                                    }
                                                }
                                            }

                                            else {
                                                if (x[1] <= 0.11663025617599487) {
                                                    if (x[2] <= 0.14535384625196457) {
                                                        if (x[0] <= 0.058565644547343254) {
                                                            return 2;
                                                        }

                                                        else {
                                                            if (x[0] <= 0.06465326063334942) {
                                                                return 0;
                                                            }

                                                            else {
                                                                return 2;
                                                            }
                                                        }
                                                    }

                                                    else {
                                                        return 0;
                                                    }
                                                }

                                                else {
                                                    if (x[3] <= 0.09398399665951729) {
                                                        if (x[3] <= 0.09326399862766266) {
                                                            return 0;
                                                        }

                                                        else {
                                                            return 2;
                                                        }
                                                    }

                                                    else {
                                                        return 0;
                                                    }
                                                }
                                            }
                                        }

                                        else {
                                            if (x[3] <= 0.01643999945372343) {
                                                if (x[0] <= 0.05082432180643082) {
                                                    return 2;
                                                }

                                                else {
                                                    return 0;
                                                }
                                            }

                                            else {
                                                if (x[0] <= 0.0022757670376449823) {
                                                    return 2;
                                                }

                                                else {
                                                    if (x[1] <= 0.19513943046331406) {
                                                        if (x[0] <= 0.021016973070800304) {
                                                            return 2;
                                                        }

                                                        else {
                                                            return 0;
                                                        }
                                                    }

                                                    else {
                                                        return 0;
                                                    }
                                                }
                                            }
                                        }
                                    }
                                }
                            }

                            else {
                                if (x[1] <= 0.12188231199979782) {
                                    if (x[2] <= 0.015957468189299107) {
                                        if (x[3] <= 0.05034982971847057) {
                                            if (x[1] <= 0.06743504479527473) {
                                                if (x[0] <= 0.16204427182674408) {
                                                    if (x[2] <= 0.0001538461510790512) {
                                                        return 2;
                                                    }

                                                    else {
                                                        return 1;
                                                    }
                                                }

                                                else {
                                                    return 2;
                                                }
                                            }

                                            else {
                                                return 2;
                                            }
                                        }

                                        else {
                                            if (x[0] <= 0.18918073922395706) {
                                                if (x[0] <= 0.07092004641890526) {
                                                    if (x[1] <= 0.06312786415219307) {
                                                        return 1;
                                                    }

                                                    else {
                                                        return 2;
                                                    }
                                                }

                                                else {
                                                    if (x[1] <= 0.0022819899604655802) {
                                                        return 1;
                                                    }

                                                    else {
                                                        if (x[0] <= 0.17180655151605606) {
                                                            return 2;
                                                        }

                                                        else {
                                                            if (x[1] <= 0.0983649268746376) {
                                                                return 2;
                                                            }

                                                            else {
                                                                return 0;
                                                            }
                                                        }
                                                    }
                                                }
                                            }

                                            else {
                                                if (x[1] <= 0.07990870997309685) {
                                                    return 2;
                                                }

                                                else {
                                                    return 0;
                                                }
                                            }
                                        }
                                    }

                                    else {
                                        if (x[0] <= 0.16298002004623413) {
                                            if (x[2] <= 0.10920000076293945) {
                                                if (x[3] <= 0.02429577335715294) {
                                                    if (x[1] <= 0.04960833303630352) {
                                                        if (x[2] <= 0.04981858283281326) {
                                                            if (x[0] <= 0.1407463550567627) {
                                                                if (x[2] <= 0.03869926370680332) {
                                                                    return 1;
                                                                }

                                                                else {
                                                                    if (x[1] <= 0.016647854819893837) {
                                                                        return 1;
                                                                    }

                                                                    else {
                                                                        if (x[0] <= 0.11446946114301682) {
                                                                            if (x[2] <= 0.04221538454294205) {
                                                                                return 1;
                                                                            }

                                                                            else {
                                                                                return 2;
                                                                            }
                                                                        }

                                                                        else {
                                                                            return 2;
                                                                        }
                                                                    }
                                                                }
                                                            }

                                                            else {
                                                                return 2;
                                                            }
                                                        }

                                                        else {
                                                            return 2;
                                                        }
                                                    }

                                                    else {
                                                        return 2;
                                                    }
                                                }

                                                else {
                                                    if (x[1] <= 0.11117155104875565) {
                                                        if (x[3] <= 0.09998400136828423) {
                                                            if (x[2] <= 0.09596922993659973) {
                                                                if (x[0] <= 0.0712960883975029) {
                                                                    if (x[1] <= 0.024801681749522686) {
                                                                        return 1;
                                                                    }

                                                                    else {
                                                                        return 2;
                                                                    }
                                                                }

                                                                else {
                                                                    if (x[0] <= 0.1489175707101822) {
                                                                        if (x[1] <= 0.00876289838925004) {
                                                                            if (x[1] <= 0.008482255041599274) {
                                                                                return 2;
                                                                            }

                                                                            else {
                                                                                return 1;
                                                                            }
                                                                        }

                                                                        else {
                                                                            return 2;
                                                                        }
                                                                    }

                                                                    else {
                                                                        if (x[0] <= 0.14900533854961395) {
                                                                            return 0;
                                                                        }

                                                                        else {
                                                                            if (x[2] <= 0.07141538336873055) {
                                                                                return 2;
                                                                            }

                                                                            else {
                                                                                if (x[2] <= 0.07212307676672935) {
                                                                                    return 0;
                                                                                }

                                                                                else {
                                                                                    if (x[1] <= 0.08809468522667885) {
                                                                                        return 2;
                                                                                    }

                                                                                    else {
                                                                                        return 0;
                                                                                    }
                                                                                }
                                                                            }
                                                                        }
                                                                    }
                                                                }
                                                            }

                                                            else {
                                                                if (x[0] <= 0.12669894099235535) {
                                                                    if (x[2] <= 0.09772307798266411) {
                                                                        return 0;
                                                                    }

                                                                    else {
                                                                        return 2;
                                                                    }
                                                                }

                                                                else {
                                                                    if (x[3] <= 0.06933600082993507) {
                                                                        if (x[1] <= 0.09382568299770355) {
                                                                            return 2;
                                                                        }

                                                                        else {
                                                                            if (x[1] <= 0.09584102779626846) {
                                                                                return 0;
                                                                            }

                                                                            else {
                                                                                return 2;
                                                                            }
                                                                        }
                                                                    }

                                                                    else {
                                                                        if (x[3] <= 0.09691527858376503) {
                                                                            return 0;
                                                                        }

                                                                        else {
                                                                            return 2;
                                                                        }
                                                                    }
                                                                }
                                                            }
                                                        }

                                                        else {
                                                            if (x[2] <= 0.07664615288376808) {
                                                                if (x[1] <= 0.08575180917978287) {
                                                                    return 2;
                                                                }

                                                                else {
                                                                    if (x[0] <= 0.13128427416086197) {
                                                                        return 2;
                                                                    }

                                                                    else {
                                                                        return 0;
                                                                    }
                                                                }
                                                            }

                                                            else {
                                                                if (x[1] <= 0.04627776890993118) {
                                                                    return 2;
                                                                }

                                                                else {
                                                                    if (x[0] <= 0.09112539514899254) {
                                                                        return 2;
                                                                    }

                                                                    else {
                                                                        return 0;
                                                                    }
                                                                }
                                                            }
                                                        }
                                                    }

                                                    else {
                                                        if (x[2] <= 0.06246154010295868) {
                                                            if (x[3] <= 0.11673599854111671) {
                                                                if (x[1] <= 0.11145595461130142) {
                                                                    return 0;
                                                                }

                                                                else {
                                                                    if (x[0] <= 0.1607833206653595) {
                                                                        return 2;
                                                                    }

                                                                    else {
                                                                        if (x[3] <= 0.07826400175690651) {
                                                                            return 2;
                                                                        }

                                                                        else {
                                                                            return 0;
                                                                        }
                                                                    }
                                                                }
                                                            }

                                                            else {
                                                                return 0;
                                                            }
                                                        }

                                                        else {
                                                            if (x[0] <= 0.12503525987267494) {
                                                                if (x[3] <= 0.09333600103855133) {
                                                                    return 2;
                                                                }

                                                                else {
                                                                    return 0;
                                                                }
                                                            }

                                                            else {
                                                                return 0;
                                                            }
                                                        }
                                                    }
                                                }
                                            }

                                            else {
                                                if (x[3] <= 0.0890803299844265) {
                                                    if (x[1] <= 0.07991351187229156) {
                                                        if (x[2] <= 0.1592615395784378) {
                                                            if (x[2] <= 0.10926531627774239) {
                                                                return 0;
                                                            }

                                                            else {
                                                                if (x[0] <= 0.1479698345065117) {
                                                                    if (x[2] <= 0.11107692494988441) {
                                                                        if (x[1] <= 0.06694288179278374) {
                                                                            return 2;
                                                                        }

                                                                        else {
                                                                            return 0;
                                                                        }
                                                                    }

                                                                    else {
                                                                        return 2;
                                                                    }
                                                                }

                                                                else {
                                                                    if (x[3] <= 0.06864846870303154) {
                                                                        if (x[1] <= 0.06949304416775703) {
                                                                            if (x[1] <= 0.0638811532407999) {
                                                                                return 2;
                                                                            }

                                                                            else {
                                                                                if (x[2] <= 0.1481846198439598) {
                                                                                    return 2;
                                                                                }

                                                                                else {
                                                                                    return 0;
                                                                                }
                                                                            }
                                                                        }

                                                                        else {
                                                                            return 0;
                                                                        }
                                                                    }

                                                                    else {
                                                                        return 0;
                                                                    }
                                                                }
                                                            }
                                                        }

                                                        else {
                                                            return 0;
                                                        }
                                                    }

                                                    else {
                                                        if (x[0] <= 0.12475396692752838) {
                                                            if (x[3] <= 0.04617599956691265) {
                                                                if (x[2] <= 0.15483076870441437) {
                                                                    return 2;
                                                                }

                                                                else {
                                                                    if (x[1] <= 0.10189591348171234) {
                                                                        return 0;
                                                                    }

                                                                    else {
                                                                        return 2;
                                                                    }
                                                                }
                                                            }

                                                            else {
                                                                if (x[1] <= 0.09141992405056953) {
                                                                    if (x[0] <= 0.09740754961967468) {
                                                                        return 2;
                                                                    }

                                                                    else {
                                                                        return 0;
                                                                    }
                                                                }

                                                                else {
                                                                    if (x[2] <= 0.11156922951340675) {
                                                                        return 2;
                                                                    }

                                                                    else {
                                                                        return 0;
                                                                    }
                                                                }
                                                            }
                                                        }

                                                        else {
                                                            if (x[3] <= 0.004392000031657517) {
                                                                if (x[1] <= 0.09790964424610138) {
                                                                    return 2;
                                                                }

                                                                else {
                                                                    return 0;
                                                                }
                                                            }

                                                            else {
                                                                if (x[2] <= 0.11606153845787048) {
                                                                    if (x[2] <= 0.11403076723217964) {
                                                                        return 0;
                                                                    }

                                                                    else {
                                                                        return 2;
                                                                    }
                                                                }

                                                                else {
                                                                    return 0;
                                                                }
                                                            }
                                                        }
                                                    }
                                                }

                                                else {
                                                    if (x[1] <= 0.034765319898724556) {
                                                        if (x[0] <= 0.12405965849757195) {
                                                            return 2;
                                                        }

                                                        else {
                                                            if (x[2] <= 0.1190769225358963) {
                                                                return 2;
                                                            }

                                                            else {
                                                                return 0;
                                                            }
                                                        }
                                                    }

                                                    else {
                                                        if (x[0] <= 0.07941827550530434) {
                                                            if (x[1] <= 0.07810561917722225) {
                                                                return 2;
                                                            }

                                                            else {
                                                                return 0;
                                                            }
                                                        }

                                                        else {
                                                            return 0;
                                                        }
                                                    }
                                                }
                                            }
                                        }

                                        else {
                                            if (x[2] <= 0.08720900490880013) {
                                                if (x[3] <= 0.0928799994289875) {
                                                    if (x[1] <= 0.09398577734827995) {
                                                        if (x[1] <= 0.06610850617289543) {
                                                            if (x[2] <= 0.06945985183119774) {
                                                                return 2;
                                                            }

                                                            else {
                                                                if (x[2] <= 0.06956923007965088) {
                                                                    return 0;
                                                                }

                                                                else {
                                                                    if (x[0] <= 0.22310268133878708) {
                                                                        if (x[2] <= 0.07137333229184151) {
                                                                            if (x[3] <= 0.042600000742822886) {
                                                                                return 2;
                                                                            }

                                                                            else {
                                                                                return 0;
                                                                            }
                                                                        }

                                                                        else {
                                                                            return 2;
                                                                        }
                                                                    }

                                                                    else {
                                                                        return 0;
                                                                    }
                                                                }
                                                            }
                                                        }

                                                        else {
                                                            if (x[3] <= 0.06943199783563614) {
                                                                if (x[2] <= 0.08375384658575058) {
                                                                    if (x[1] <= 0.06648128107190132) {
                                                                        return 0;
                                                                    }

                                                                    else {
                                                                        if (x[3] <= 0.038080647587776184) {
                                                                            return 2;
                                                                        }

                                                                        else {
                                                                            if (x[0] <= 0.2069338634610176) {
                                                                                if (x[3] <= 0.03970896080136299) {
                                                                                    if (x[2] <= 0.07982182130217552) {
                                                                                        return 0;
                                                                                    }

                                                                                    else {
                                                                                        return 2;
                                                                                    }
                                                                                }

                                                                                else {
                                                                                    return 2;
                                                                                }
                                                                            }

                                                                            else {
                                                                                return 0;
                                                                            }
                                                                        }
                                                                    }
                                                                }

                                                                else {
                                                                    if (x[0] <= 0.18747957795858383) {
                                                                        return 2;
                                                                    }

                                                                    else {
                                                                        return 0;
                                                                    }
                                                                }
                                                            }

                                                            else {
                                                                if (x[2] <= 0.03849230706691742) {
                                                                    return 2;
                                                                }

                                                                else {
                                                                    return 0;
                                                                }
                                                            }
                                                        }
                                                    }

                                                    else {
                                                        if (x[3] <= 0.035759998485445976) {
                                                            if (x[2] <= 0.06852307543158531) {
                                                                return 2;
                                                            }

                                                            else {
                                                                if (x[0] <= 0.18125198036432266) {
                                                                    return 2;
                                                                }

                                                                else {
                                                                    return 0;
                                                                }
                                                            }
                                                        }

                                                        else {
                                                            if (x[2] <= 0.025292308069765568) {
                                                                if (x[0] <= 0.20420165359973907) {
                                                                    return 2;
                                                                }

                                                                else {
                                                                    return 0;
                                                                }
                                                            }

                                                            else {
                                                                return 0;
                                                            }
                                                        }
                                                    }
                                                }

                                                else {
                                                    if (x[1] <= 0.026740758679807186) {
                                                        if (x[2] <= 0.06670769304037094) {
                                                            if (x[3] <= 0.09734399989247322) {
                                                                if (x[1] <= 0.01631170278415084) {
                                                                    return 2;
                                                                }

                                                                else {
                                                                    return 0;
                                                                }
                                                            }

                                                            else {
                                                                return 2;
                                                            }
                                                        }

                                                        else {
                                                            return 0;
                                                        }
                                                    }

                                                    else {
                                                        if (x[0] <= 0.17553984373807907) {
                                                            if (x[1] <= 0.08237353339791298) {
                                                                return 2;
                                                            }

                                                            else {
                                                                return 0;
                                                            }
                                                        }

                                                        else {
                                                            if (x[2] <= 0.02973199635744095) {
                                                                if (x[3] <= 0.09866399690508842) {
                                                                    return 2;
                                                                }

                                                                else {
                                                                    return 0;
                                                                }
                                                            }

                                                            else {
                                                                return 0;
                                                            }
                                                        }
                                                    }
                                                }
                                            }

                                            else {
                                                if (x[3] <= 0.051551999524235725) {
                                                    if (x[1] <= 0.04446398466825485) {
                                                        if (x[0] <= 0.19644661992788315) {
                                                            return 2;
                                                        }

                                                        else {
                                                            if (x[2] <= 0.12575384974479675) {
                                                                if (x[0] <= 0.22637493163347244) {
                                                                    if (x[3] <= 0.048398591578006744) {
                                                                        return 2;
                                                                    }

                                                                    else {
                                                                        if (x[2] <= 0.10233846306800842) {
                                                                            return 2;
                                                                        }

                                                                        else {
                                                                            return 0;
                                                                        }
                                                                    }
                                                                }

                                                                else {
                                                                    return 0;
                                                                }
                                                            }

                                                            else {
                                                                if (x[1] <= 0.004486083053052425) {
                                                                    return 2;
                                                                }

                                                                else {
                                                                    return 0;
                                                                }
                                                            }
                                                        }
                                                    }

                                                    else {
                                                        if (x[2] <= 0.09713846445083618) {
                                                            if (x[3] <= 0.030083793215453625) {
                                                                if (x[1] <= 0.10118325799703598) {
                                                                    return 2;
                                                                }

                                                                else {
                                                                    return 0;
                                                                }
                                                            }

                                                            else {
